1.609886693495005405e-01 -2.153578414237934946e-01 -2.777930414076524857e-01 -1.319863279111297208e-02 -3.705229360173666331e-01 1.109838836661062034e-01 2.311902020024294846e-01
-4.748939039643959581e-01 2.084474084817028450e-01 -2.383153242296170149e-01 9.121311199856949048e-02 -6.171673790511857105e-02 2.096831302062694413e-01 -1.325395860052298591e-01
5.238840332033426472e-01 6.909506250142134487e-01 -7.175736362217829956e-02 8.297990362474810463e-03 -3.858946041821997158e-02 2.196627959850082357e-02 -1.151306106599912366e-01
-7.838389236713111385e-01 -8.442639107629960893e-02 -6.379061341107926386e-02 1.974013846595926765e-03 -9.460718007862254364e-01 6.375581777051577692e-01 1.120899367213760156e-01
-3.208425442121927706e-01 -4.420112373528217731e-01 -1.279035794677270965e-01 7.640933319350809438e-02 -2.509525093692018261e-01 2.118786901365809772e-01 1.163861404449708092e-01
3.506093211676834520e-01 1.730498801819321808e-01 9.132588048052152352e-02 1.777290092973888291e-01 -2.952119099196842122e-01 1.009349312712672503e-01 -1.799556964745405163e-01
4.501195934732486748e-02 -3.601561208294159350e-02 4.258692633679017070e-01 1.091961931222942654e-02 -2.358861225645179638e-01 -2.147063197283608782e-01 5.205358347794529772e-01
-2.744630512348360529e-01 -1.414421872778456324e-01 -4.732617612144705832e-02 3.362665163400861967e-01 2.667840134525854001e-01 1.555102577560123212e-01 -7.030035857175914726e-02
-5.015609437565755613e-01 -8.645313425527832718e-02 -1.474808787605149524e-02 -1.931373994837323749e-02 -8.913950147301366034e-01 5.503267483385674286e-01 7.398080932561234002e-01
-5.861998579396663495e-02 -3.223195187210098345e-01 2.003929065834464673e-01 -9.792248915499399131e-02 -7.932943884973787663e-01 2.165182806500692836e-01 6.237415508886314797e-01
1.112667097982555919e-01 -1.881078486043405162e-01 -1.589795766523346143e-01 1.551765987008747565e-02 5.909537859357061329e-01 -2.336726084660231684e-01 -3.351975135438585440e-02
3.663976752006261606e-01 9.569537132756970876e-02 -1.884043055611216502e-02 6.187410343638878596e-03 1.531924722766597746e-01 3.019352212255255741e-01 6.073671970262672914e-01
-1.250886981489311989e-01 -2.984669910105912094e-01 5.845658306431332669e-03 1.725594061795119316e-01 -1.448274576315112250e-01 1.994001211098596626e-01 4.712452361834686965e-01
-4.450494285255059412e-01 7.096725673202941564e-02 -2.043210950579838203e-01 5.018573288120846410e-02 -1.922968961370692675e-01 3.677618767192843419e-01 2.640413968826676450e-01
-1.241693981683262421e-01 -1.758287491784964532e-02 1.885611641981376277e-02 -4.604470977716596317e-03 -9.631133443997810240e-01 6.307771895656565098e-02 3.550725353436385290e-01
1.969971960773763131e-01 1.421786387672703822e-01 2.336219634407189494e-01 -2.257769270252958371e-01 -9.340354332210956678e-02 -3.211618690108151153e-01 3.519385836418024160e-01
-3.962311850353118503e-01 -2.553901180460349529e-01 8.208695190845437251e-02 -2.964485812115039143e-02 -9.301597747804155603e-01 5.178517738373158430e-01 6.048001230513533333e-01
3.562455828373449207e-01 7.892567833979526049e-02 -8.563693670442132366e-02 -5.338983447305599515e-04 1.073440275986695669e+00 -5.598562322611079223e-01 -1.137997400248567770e+00
1.673634838739127429e-04 8.133458800663933902e-04 5.186964042475518122e-01 -4.176408855044255047e-02 -9.014551199662944603e-01 2.016376558386140938e-01 5.062999612969507623e-01
-6.132873861456727971e-02 -4.991788656379222977e-01 2.704742094280991327e-01 -1.204547542671175336e-01 -4.003604445562933267e-01 -3.098105821113275593e-02 1.161446789135120172e-01
1.487184895733447421e-01 -3.431121064255576031e-02 2.709383010121200197e-01 -3.601479805052260758e-02 2.069971433340634659e-01 -4.173858209867423175e-01 1.055171340952653219e-01
-3.042531259271404331e-01 -5.908609959003035400e-02 -7.552934316989136365e-02 -2.469961754635296991e-02 -3.205035725220446441e-01 4.781155512448733713e-01 3.556637155357407765e-01
-1.478000015813793477e-01 8.275127247919768225e-02 1.124781023425395488e-01 7.823334872326051515e-02 -5.826318315726179177e-03 1.888619235373475980e-01 4.351303191797344372e-01
1.102286736545865647e-01 4.489482625841840352e-02 -3.104391508005712730e-01 -1.161466638456223367e-02 2.434873491067536255e-01 -2.835285302104327276e-01 2.260188003100890852e-01
-2.916644785100476478e-02 9.782406642789261142e-02 -6.910538423334462721e-02 2.966424621888157087e-02 6.172427680309179321e-01 -2.590278453575900475e-01 -3.196318989474583039e-01
5.404668470072190312e-01 -1.333083173650784492e-01 6.057983867907438917e-03 -6.817296968238771571e-02 -4.435268190996898702e-02 7.710256259065453865e-02 -2.684518160053522284e-01
1.746306741428075293e-01 -2.500017500924046066e-01 -1.595590071556145240e-01 -3.168967327100745413e-02 5.425155087967561407e-01 -2.077490881064757988e-01 1.721758104438908810e-01
-2.695982588038784988e-01 8.216622934952575244e-03 -4.324509754546170155e-03 3.952894658874990357e-03 -5.025977271675962088e-01 4.456173510087863554e-01 6.260158987772495021e-01
-7.957197047711650484e-02 -1.106045782618571699e-01 -4.941619733482133930e-02 1.462835432627912838e-02 -6.495735748099497331e-02 7.477126542469724191e-01 4.201461455152558089e-01
-1.171171251639385319e-01 -3.015232198901468541e-01 -8.569916536357462256e-02 -3.268511011329047061e-02 1.226081053418426603e-01 1.199061031901388491e-01 4.627713907739224308e-01
-3.488967593575124648e-01 3.992306814380777724e-01 -8.988319222202645646e-04 -4.829276959326847529e-02 5.167017518979838409e-01 -1.543754972198390085e-01 -2.408993609561234372e-01
1.048106690106740402e-01 -4.428235309681874399e-02 2.623181031653718520e-01 -3.398713062587638278e-02 -7.216074729940955557e-01 3.140197682072875529e-01 4.750534625891252305e-01
4.400784243866014134e-02 -2.373035905500333123e-02 -2.761606350737016990e-01 6.193355788546085414e-03 8.713058600604614012e-01 -2.246697463859662347e-01 -6.901191163238533655e-01
-1.480660639924611388e-01 4.496377561457454153e-01 -1.520602997210454554e-01 4.770918308479974584e-02 2.784511407049594101e-01 5.250760588294103859e-02 1.510290413737101767e-01
9.546833380559885049e-03 -3.770632598261807744e-01 -4.211944439092456527e-01 -1.389975271309525917e-01 1.121211374782046799e-01 2.185833831614840961e-01 2.636133891781007321e-01
6.438839649932977249e-02 -1.061263349445993737e-01 1.431002045314538063e-01 2.915534650989611010e-02 5.539001396680478528e-01 -4.007096640907654717e-01 -1.520417876083146325e-01
-3.928494737710501757e-09 8.910182736308791448e-10 -1.211058427650057417e-09 1.768715817434101583e-11 -4.103941817848873532e-10 5.779715183388304264e-10 -3.044481198583835497e-04
-7.932236019669555716e-02 4.013878749981002886e-02 4.256692497075356130e-01 -2.102897175748887904e-01 1.737597566544207828e-01 2.566517832508820596e-01 -2.220000743990295511e-01
3.320902382592090529e-02 9.745307140652439970e-02 1.413125236088392522e-01 1.211729338624190078e-01 3.696131316093512198e-01 -3.702691729793378683e-01 -4.397423036878676805e-02
9.061809333220502069e-03 -1.925822297277416870e-02 -2.855283043649651242e-01 3.421501293427990208e-03 7.074477765520889028e-01 -2.895305740656190507e-01 -2.200035867209067797e-01
5.879310768003715992e-01 -2.947779811068546585e-01 4.345745456278392316e-02 -4.231591018978272944e-02 2.695346799447466066e-02 -1.568122722410273950e-01 1.875704613447735578e-02
8.295581052449671478e-02 1.655997672229371775e-01 -7.426940065842800587e-02 5.652367983428036730e-02 5.593622031740177469e-01 -3.086222861960858377e-01 -1.293975490422743235e-01
-1.593140396643728807e-01 9.593169184786766446e-02 2.112415676517662155e-01 1.293632541645445104e-02 -1.369884974484629758e+00 7.505986731600136075e-01 7.521280425985242823e-01
1.734775231402369694e-02 -2.900699627506278522e-02 -5.301490317697181778e-03 -3.592200239828641358e-04 5.674438673862395310e-01 -3.202845351056157752e-01 -3.727752237999105156e-01
4.946241090810573997e-03 5.037732645344788519e-03 -2.676021567541056120e-02 -1.046213344752107595e-02 6.872451059453977829e-01 -3.626847802184187675e-01 -4.679354501839212421e-01
-1.067271976964314917e-01 -1.270104939716705794e-01 -5.909690237996593348e-02 3.912069946665592407e-02 -1.052912280083054153e+00 -1.002427868751021856e-01 6.301649835457905358e-01
-3.913812036748157835e-02 2.583347436165764899e-01 5.150602119873637363e-01 3.166635621312098581e-02 -5.290234850504053066e-01 1.533977857523703692e-01 3.326363533722224708e-01
7.604626771415804454e-01 1.097819033954953727e-01 3.537060281951139723e-02 1.446901076404263561e-02 3.641369915546424085e-01 -2.835022629709134101e-01 -3.584200250767385354e-01
4.224274022546934959e-01 1.493167900419138834e-02 -7.456867907414739538e-02 3.873888394275897679e-02 6.067068206106372985e-01 -3.019175628275445056e-01 -8.739897403823382316e-01
-1.870368433007301712e-01 1.247914204727456622e-01 -1.998827078729652484e-01 2.918760264961170903e-03 -3.214297820996270261e-01 5.260118410493326291e-01 5.824550524075119418e-01
-1.341744505891660777e-01 -3.065077386543530458e-01 -1.266275398821690157e-01 3.192594645185055091e-01 1.015327570585895095e-01 1.705305522823774289e-01 -7.175510328803925975e-02
9.851924827081896818e-02 -1.994997693841091546e-01 1.385438870924705565e-02 -2.935398569917256340e-01 -3.508105385662009801e-01 1.206562104266000607e-01 5.128205750909502203e-02
-7.762440092226915445e-01 -7.663175210012478089e-02 -8.236456459013299924e-02 8.049347062624473415e-03 -7.262111699419345756e-01 5.787488010064217869e-01 2.721810690143982026e-01
-2.856098051159887130e-01 3.389283595585217967e-01 -4.289184068876365254e-03 -3.083998202776279396e-02 -5.571086202157827794e-01 3.576964025436469852e-01 2.284629776247137367e-01
8.826973317408196573e-01 9.087265499553638659e-02 1.046428395034571315e-02 8.071067833667792263e-03 -3.327762339449565759e-02 3.181107597001909138e-03 7.211240321524721164e-01
-3.739511119727188804e-02 -7.278297484226263492e-02 -1.697073145900564184e-02 1.479199158544129700e-02 1.996114371595614223e-01 2.032214598127463356e-01 3.648480947882235537e-01
7.334612803853950425e-01 1.317479804487822481e-01 3.883467540076549623e-02 1.102114240027005608e-03 4.942820870255905108e-01 -3.324415246871351148e-01 -1.069828589738050506e-01
-1.927436128855942732e-01 5.997116330190189679e-03 -2.966722186774811698e-01 7.946426656920585474e-02 -6.193213200814976505e-01 4.014890283889830935e-01 5.434271297663975098e-01
2.813389188303472635e-02 -1.954937788544805211e-01 4.486386923432209017e-01 2.277180955309894561e-01 4.147473646132555924e-03 2.012272212772546476e-01 1.815331082005962049e-01
2.379276780732212937e-01 -3.493903111636593728e-01 -3.444799531637857126e-02 1.007303129293150336e-02 3.625082436891933213e-01 -2.173302806321967262e-01 3.059023723809944362e-01
-2.469864165310521886e-01 1.917267060201037765e-01 -1.090835140759763427e-01 1.353103121477177394e-02 -6.213174350150739711e-01 4.500978055636777331e-01 5.383814566410086710e-01
2.030886515903051748e-01 -1.443660514427607018e-02 -4.394431115046940756e-02 -6.470613676298587504e-03 9.085970030141437004e-01 -5.328914055558295892e-01 -1.137357998820561766e+00
9.455439946925996153e-02 1.204155658669621258e-02 7.120783890854679443e-01 -9.649235568082212278e-03 -8.024671146321975534e-01 3.747454841937438580e-02 1.085613870367126838e-01
-1.376522668571762698e-01 2.313157200418161918e-01 3.454789738564301160e-01 8.705402697290000325e-02 7.626272609183790130e-02 -3.341121843526463353e-01 6.028312886782442176e-02
-2.205161620940196410e-02 5.383574445380166079e-02 6.807594977646286294e-02 4.039356662801904529e-02 6.859344073802771391e-02 -2.821844113459358039e-01 3.731392327485952287e-01
1.781937051472924638e-01 1.589267697245710931e-02 -1.008325897828618242e-02 -1.107449482540499852e-02 1.281225818084356982e+00 -9.460524810881515423e-01 -1.294123620033439170e+00
3.955632210321655129e-02 -3.669001873053465840e-02 -2.492055295600364428e-01 1.127845419412813223e-02 7.543496464163176318e-01 -2.887663384621685370e-01 -3.335712315509841708e-01
2.322498412316258420e-01 1.820837699385044472e-01 -2.728635095590028689e-02 -4.295851281948654399e-01 -2.206394642333556477e-01 -2.296608862615993341e-01 2.503207384545703129e-01
1.153330334315149502e-01 -1.096128650001102628e-01 -1.847079034501470096e-01 1.030680925910828216e-01 2.380427033204424170e-02 -7.977877483501601141e-02 2.389644391754587593e-01
-7.274785467176644316e-01 -8.158209020849640503e-01 4.173880123344851298e-03 -2.267288494301274507e-02 8.437858976665398025e-02 -5.643881908362301941e-02 2.564732094827382736e-01
3.501111981159066300e-01 -1.490001809842952246e-02 2.630420968878374732e-01 7.074991159127548557e-02 -1.620586295679274716e-03 4.520404310408943638e-01 -1.595381743468209101e-01
2.078479441576245867e-01 -2.074232767247777276e-01 -2.547325625149862716e-02 -3.730195412948826839e-01 -2.531569175628969326e-01 -3.761164170706073062e-02 3.269176298838067374e-01
-3.641503424549223378e-01 1.381088155817901397e-01 -1.998180158754492633e-02 8.399237079768291647e-02 4.942641795553352063e-02 5.300192620342163846e-02 3.010317034299903605e-01
-2.054199405038440174e-01 1.187027938114609549e-01 2.428484384869903923e-01 -2.137804855502260237e-01 2.958161445812127477e-01 4.089244937580115979e-01 -2.969025243775039180e-02
7.484919403460485454e-02 -2.613325627467690260e-01 7.193969860380225456e-02 1.526222539305582826e-02 -6.753900264605368076e-01 3.314709664322586513e-01 8.240973034983604117e-01
6.546922858538982426e-02 -4.847408937737220092e-02 1.292240057120032093e-01 -1.931326230505165109e-01 3.966842431268681191e-01 -2.377774215949301495e-01 -2.701189590921276307e-01
2.676543522005874753e-01 2.418670974518112027e-01 -1.771337730479036476e-01 -1.515270145965312565e-01 1.918381661553349160e-01 -1.644957407071508670e-01 3.078565801895910559e-01
9.913440851307903437e-03 2.710252560101703012e-02 -1.985340829018427677e-01 4.915175648700300867e-03 7.603484281254643262e-01 -3.575971967176373445e-01 -3.408715205426769423e-01
2.152542053252741172e-01 -2.928758305266876971e-01 -8.409512979525179954e-02 -3.363260830810139990e-02 3.575796144129534393e-01 -1.070542304323704869e-01 4.057761622586718575e-01
1.985740414868011061e-01 -5.691771876717936079e-02 -3.295933454822978781e-02 8.125354307942875276e-02 -5.203898160309656795e-01 1.523455686233047279e-01 5.687024732954585327e-01
5.109350982028803417e-02 -5.767485237189694247e-02 8.391781454545078900e-02 1.169686336257297690e-02 5.184218489959785403e-01 -3.785141736093676768e-01 -2.302786949346315726e-01
-2.352591268058532026e-01 2.084226460795203517e-02 -1.885039266741979358e-02 2.763123786809280891e-02 1.445624602803551872e-01 2.297495982610559817e-01 1.732186715385088116e-01
-2.011309730131000117e-01 1.117712463288587782e-01 -2.314337693283854969e-01 -1.639448434677465150e-01 1.658087334307387084e-01 -3.201114740957201610e-01 -1.752400483679923404e-01
5.704680113640034911e-01 -5.211824874900856663e-01 5.664235974339625578e-03 -1.297866915874676830e-03 4.366734732881054071e-01 -2.645703397729801121e-01 4.252633588198149739e-01
-2.535725346604356806e-02 2.664625448268434851e-02 1.490891821694846908e-01 -7.507911224648387491e-03 -1.130836355656642311e+00 5.589331795870174924e-01 6.857850115518155931e-01
-8.197583238801581240e-02 6.472057003890512028e-02 1.019271788214884122e-01 1.051650611705313293e-02 -1.310491690102853823e+00 7.740197529644713414e-01 8.186247025026769375e-01
-1.756450120898918610e-01 2.766014428902311972e-01 -1.500808818829423852e-01 -3.288174698081671732e-01 -2.230034502644364161e-02 -7.725500744791455321e-02 3.113201259353306494e-01
2.720819893459677785e-01 1.398644802558750566e-01 -1.062704163691414461e-01 -1.153098722961492517e-01 -3.259927853524040575e-01 9.176342653829054619e-02 7.718437317603578096e-01
-4.808275257122749391e-01 -3.711962179842182019e-01 3.221797279116150881e-02 1.094898657823125537e-02 -4.055478270569495280e-01 2.269305384328426656e-01 5.515816934224033741e-01
3.288575284081047406e-02 -8.766218668417150028e-02 3.557819179692932043e-01 -2.336233626360248797e-02 -4.212518660516911817e-02 -2.923937839896307428e-02 4.304703907182391154e-01
3.323496298625639583e-02 -5.125628299236788255e-02 2.711836663666692196e-02 1.650852442362822289e-02 -2.723968325207290833e-02 -8.322564997953593169e-01 -1.389815631736927848e-01
5.017058974733241694e-01 -1.959760045824628372e-01 1.922937864989685344e-02 4.050460056298915007e-02 -6.158139817986282294e-01 2.484783197060576321e-01 8.132944412178873261e-02
-5.787084550985099884e-02 -1.234045670586249449e-01 2.286161601576959801e-01 -1.930769889570247977e-01 -6.518436182331925899e-01 -4.443233724960724690e-02 5.934037036699499890e-01
2.808036776797247502e-01 -3.777316174925202108e-01 2.485786113473610337e-01 -2.661063137812623089e-02 1.730478130069522946e-01 1.372765889337996814e-01 -2.869850532796294207e-01
-5.650919752101191129e-02 3.249688879095634642e-01 -8.818282695338022781e-02 2.401932468734135073e-01 3.179519536577742334e-01 -1.610181365534910092e-01 -3.369242018265827115e-02
-1.163619057296539222e-01 1.025230046069149914e-01 -5.947628298958036047e-02 -2.129525302848603134e-03 -9.945128241443271788e-01 6.528789301119326538e-01 5.070601297323484857e-01
-7.807332561077430337e-03 -2.080304963620247319e-02 -3.730174438754063626e-01 1.380452570420609079e-02 6.112668789053763430e-01 -1.909505056451638316e-01 1.239174529635314603e-02
2.605084597616209585e-01 -1.251075214046412920e-01 5.818620696127895231e-01 6.055577967266057016e-02 -2.911836574182533402e-02 -4.733943384455561731e-01 -8.594263053270494446e-01
1.102453993686382250e-01 -9.875439174794181652e-02 -2.083393583806670557e-01 3.213202575294980823e-02 6.628642868625777007e-01 -2.408532256311270714e-01 -3.254188328783199635e-01
5.999908264488281948e-03 -5.703819407371621408e-02 -3.605990368976353944e-01 6.795577633292949893e-03 5.114840919960883525e-01 -1.810097101224918958e-01 2.850709952764747188e-02
