2.012334919904220920e-01
2.765144339849383570e-01
6.305455831842531333e-01
9.220143461537515517e-01
2.548702097327610328e-01
2.286155314234658564e-01
-4.667540044591590997e-01
-2.339684073135138154e-01
-1.244124301996864634e+00
6.781527933868077840e-01
-4.061349572290740007e-01
4.275261717405606232e-01
-1.972553192634545483e-01
3.906800928664310724e-01
7.889719804114709856e-01
-2.456175792458271390e-01
9.994057816460512056e-01
-2.570993293659814771e+00
6.282881544779954641e-01
2.965980852344958230e-01
-2.925230578156452488e-01
4.277412265445956208e-01
-2.769393188426164110e-01
-1.200687935811862866e-01
-3.307480848780987581e-01
3.993973901930124581e-01
-2.388843978514515187e-01
6.895701247505086062e-01
4.555555425588751484e-01
-3.427271286326309951e-01
-4.722724047513313095e-01
5.935908073790383543e-01
1.194404331193669178e+00
-1.860629131001371728e-01
2.832668939227149241e-01
-4.245537536045315696e-01
5.025936897231924329e-06
2.717925233355202863e-01
-2.034535199802303684e-01
-4.662446580455991696e-01
-4.386851967763904514e-01
-3.036899201210752630e-01
-8.091864608533496650e-01
-3.637550055058300091e-01
-4.821206563733699824e-01
-6.441709624560441050e-01
3.275414151367060933e-01
9.879477874159902084e-01
1.598034449137773816e+00
4.715784748965879403e-01
1.642996593267641303e-01
3.577914655901616725e-01
-1.178947099512892116e+00
3.723361930278077936e-01
-7.229218055589650138e-01
-2.311315687721571255e-01
-7.784410948096736060e-01
5.790953607158889627e-01
1.692233259658794675e-01
-3.215597310170903445e-01
8.494087593607774211e-01
2.294336325018495604e+00
3.865051273768831397e-01
-2.357615044389682890e-01
-1.155074866880665824e-01
2.396734264668484382e+00
-5.399425794666884437e-01
2.758463207816193030e-01
-3.174990802661354500e-02
-5.337238591511691554e-01
-2.323135928529769523e-01
-2.624766652637668396e-01
-1.923411076719568069e-01
-2.457076246190215141e-01
7.598119718818758805e-01
-2.449041177645442935e-01
-2.045981146946713458e-01
-7.314862423076505804e-01
-3.017388890299811943e-01
-5.702669793268861920e-01
-3.111604851458809606e-01
-1.699851175937169279e-01
-2.384539424057968426e-01
5.080290376957576903e-01
-5.964440634477691239e-01
-8.361796616956930217e-01
-1.664378075628224485e-01
-5.165707754882084002e-01
-6.485985061877191926e-01
-3.674105544302809223e-01
-4.265609511668964626e-01
3.963893582888625700e-01
-5.242294604880252118e-01
-2.063808752790211032e-01
-2.738664011748661031e-01
-9.921451206011722146e-01
-2.998223922094651051e-01
7.060476819895442624e-01
-4.200477207136679159e-01
-2.237726269737943530e-01
-2.250341586984876963e-01
